digraph Tree {
node [shape=box] ;
0 [label="X[10] <= 10.95\ngini = 0.278\nsamples = 956\nvalue = [27, 802, 127]"] ;
1 [label="X[8] <= 3.025\ngini = 0.146\nsamples = 682\nvalue = [23, 629, 30]"] ;
0 -> 1 [labeldistance=2.5, labelangle=45, headlabel="True"] ;
2 [label="X[8] <= 3.0\ngini = 0.494\nsamples = 9\nvalue = [0, 4, 5]"] ;
1 -> 2 ;
3 [label="X[5] <= 8.5\ngini = 0.32\nsamples = 5\nvalue = [0, 4, 1]"] ;
2 -> 3 ;
4 [label="gini = 0.0\nsamples = 4\nvalue = [0, 4, 0]"] ;
3 -> 4 ;
5 [label="gini = 0.0\nsamples = 1\nvalue = [0, 0, 1]"] ;
3 -> 5 ;
6 [label="gini = 0.0\nsamples = 4\nvalue = [0, 0, 4]"] ;
2 -> 6 ;
7 [label="X[10] <= 10.45\ngini = 0.135\nsamples = 673\nvalue = [23, 625, 25]"] ;
1 -> 7 ;
8 [label="X[3] <= 1.25\ngini = 0.104\nsamples = 553\nvalue = [21, 523, 9]"] ;
7 -> 8 ;
9 [label="gini = 0.0\nsamples = 1\nvalue = [0, 0, 1]"] ;
8 -> 9 ;
10 [label="X[9] <= 0.36\ngini = 0.101\nsamples = 552\nvalue = [21, 523, 8]"] ;
8 -> 10 ;
11 [label="gini = 0.0\nsamples = 1\nvalue = [1, 0, 0]"] ;
10 -> 11 ;
12 [label="X[1] <= 0.75\ngini = 0.098\nsamples = 551\nvalue = [20, 523, 8]"] ;
10 -> 12 ;
13 [label="X[2] <= 0.65\ngini = 0.08\nsamples = 507\nvalue = [13, 486, 8]"] ;
12 -> 13 ;
14 [label="X[4] <= 0.073\ngini = 0.077\nsamples = 504\nvalue = [13, 484, 7]"] ;
13 -> 14 ;
15 [label="X[10] <= 9.05\ngini = 0.155\nsamples = 109\nvalue = [5, 100, 4]"] ;
14 -> 15 ;
16 [label="gini = 0.0\nsamples = 1\nvalue = [1, 0, 0]"] ;
15 -> 16 ;
17 [label="X[2] <= 0.475\ngini = 0.14\nsamples = 108\nvalue = [4, 100, 4]"] ;
15 -> 17 ;
18 [label="X[1] <= 0.245\ngini = 0.099\nsamples = 97\nvalue = [1, 92, 4]"] ;
17 -> 18 ;
19 [label="X[5] <= 15.0\ngini = 0.5\nsamples = 2\nvalue = [1, 1, 0]"] ;
18 -> 19 ;
20 [label="gini = 0.0\nsamples = 1\nvalue = [1, 0, 0]"] ;
19 -> 20 ;
21 [label="gini = 0.0\nsamples = 1\nvalue = [0, 1, 0]"] ;
19 -> 21 ;
22 [label="X[9] <= 0.705\ngini = 0.081\nsamples = 95\nvalue = [0, 91, 4]"] ;
18 -> 22 ;
23 [label="X[7] <= 0.997\ngini = 0.048\nsamples = 82\nvalue = [0, 80, 2]"] ;
22 -> 23 ;
24 [label="gini = 0.0\nsamples = 47\nvalue = [0, 47, 0]"] ;
23 -> 24 ;
25 [label="X[7] <= 0.997\ngini = 0.108\nsamples = 35\nvalue = [0, 33, 2]"] ;
23 -> 25 ;
26 [label="X[0] <= 7.6\ngini = 0.5\nsamples = 2\nvalue = [0, 1, 1]"] ;
25 -> 26 ;
27 [label="gini = 0.0\nsamples = 1\nvalue = [0, 1, 0]"] ;
26 -> 27 ;
28 [label="gini = 0.0\nsamples = 1\nvalue = [0, 0, 1]"] ;
26 -> 28 ;
29 [label="X[5] <= 26.0\ngini = 0.059\nsamples = 33\nvalue = [0, 32, 1]"] ;
25 -> 29 ;
30 [label="gini = 0.0\nsamples = 29\nvalue = [0, 29, 0]"] ;
29 -> 30 ;
31 [label="X[0] <= 7.25\ngini = 0.375\nsamples = 4\nvalue = [0, 3, 1]"] ;
29 -> 31 ;
32 [label="gini = 0.0\nsamples = 3\nvalue = [0, 3, 0]"] ;
31 -> 32 ;
33 [label="gini = 0.0\nsamples = 1\nvalue = [0, 0, 1]"] ;
31 -> 33 ;
34 [label="X[9] <= 0.745\ngini = 0.26\nsamples = 13\nvalue = [0, 11, 2]"] ;
22 -> 34 ;
35 [label="X[10] <= 9.6\ngini = 0.444\nsamples = 3\nvalue = [0, 1, 2]"] ;
34 -> 35 ;
36 [label="gini = 0.0\nsamples = 1\nvalue = [0, 1, 0]"] ;
35 -> 36 ;
37 [label="gini = 0.0\nsamples = 2\nvalue = [0, 0, 2]"] ;
35 -> 37 ;
38 [label="gini = 0.0\nsamples = 10\nvalue = [0, 10, 0]"] ;
34 -> 38 ;
39 [label="X[1] <= 0.585\ngini = 0.397\nsamples = 11\nvalue = [3, 8, 0]"] ;
17 -> 39 ;
40 [label="X[6] <= 72.5\ngini = 0.198\nsamples = 9\nvalue = [1, 8, 0]"] ;
39 -> 40 ;
41 [label="gini = 0.0\nsamples = 8\nvalue = [0, 8, 0]"] ;
40 -> 41 ;
42 [label="gini = 0.0\nsamples = 1\nvalue = [1, 0, 0]"] ;
40 -> 42 ;
43 [label="gini = 0.0\nsamples = 2\nvalue = [2, 0, 0]"] ;
39 -> 43 ;
44 [label="X[0] <= 5.7\ngini = 0.054\nsamples = 395\nvalue = [8, 384, 3]"] ;
14 -> 44 ;
45 [label="X[5] <= 9.0\ngini = 0.444\nsamples = 3\nvalue = [1, 2, 0]"] ;
44 -> 45 ;
46 [label="gini = 0.0\nsamples = 1\nvalue = [1, 0, 0]"] ;
45 -> 46 ;
47 [label="gini = 0.0\nsamples = 2\nvalue = [0, 2, 0]"] ;
45 -> 47 ;
48 [label="X[6] <= 9.5\ngini = 0.05\nsamples = 392\nvalue = [7, 382, 3]"] ;
44 -> 48 ;
49 [label="X[8] <= 3.235\ngini = 0.375\nsamples = 4\nvalue = [1, 3, 0]"] ;
48 -> 49 ;
50 [label="gini = 0.0\nsamples = 3\nvalue = [0, 3, 0]"] ;
49 -> 50 ;
51 [label="gini = 0.0\nsamples = 1\nvalue = [1, 0, 0]"] ;
49 -> 51 ;
52 [label="X[9] <= 0.465\ngini = 0.046\nsamples = 388\nvalue = [6, 379, 3]"] ;
48 -> 52 ;
53 [label="X[8] <= 3.375\ngini = 0.188\nsamples = 19\nvalue = [2, 17, 0]"] ;
52 -> 53 ;
54 [label="gini = 0.0\nsamples = 17\nvalue = [0, 17, 0]"] ;
53 -> 54 ;
55 [label="gini = 0.0\nsamples = 2\nvalue = [2, 0, 0]"] ;
53 -> 55 ;
56 [label="X[4] <= 0.084\ngini = 0.037\nsamples = 369\nvalue = [4, 362, 3]"] ;
52 -> 56 ;
57 [label="gini = 0.0\nsamples = 213\nvalue = [0, 213, 0]"] ;
56 -> 57 ;
58 [label="X[10] <= 10.35\ngini = 0.087\nsamples = 156\nvalue = [4, 149, 3]"] ;
56 -> 58 ;
59 [label="X[0] <= 9.75\ngini = 0.077\nsamples = 152\nvalue = [3, 146, 3]"] ;
58 -> 59 ;
60 [label="X[4] <= 0.086\ngini = 0.047\nsamples = 124\nvalue = [2, 121, 1]"] ;
59 -> 60 ;
61 [label="X[8] <= 3.36\ngini = 0.245\nsamples = 7\nvalue = [0, 6, 1]"] ;
60 -> 61 ;
62 [label="gini = 0.0\nsamples = 5\nvalue = [0, 5, 0]"] ;
61 -> 62 ;
63 [label="X[1] <= 0.46\ngini = 0.5\nsamples = 2\nvalue = [0, 1, 1]"] ;
61 -> 63 ;
64 [label="gini = 0.0\nsamples = 1\nvalue = [0, 1, 0]"] ;
63 -> 64 ;
65 [label="gini = 0.0\nsamples = 1\nvalue = [0, 0, 1]"] ;
63 -> 65 ;
66 [label="X[10] <= 9.35\ngini = 0.034\nsamples = 117\nvalue = [2, 115, 0]"] ;
60 -> 66 ;
67 [label="X[4] <= 0.094\ngini = 0.111\nsamples = 34\nvalue = [2, 32, 0]"] ;
66 -> 67 ;
68 [label="X[9] <= 0.535\ngini = 0.298\nsamples = 11\nvalue = [2, 9, 0]"] ;
67 -> 68 ;
69 [label="gini = 0.0\nsamples = 1\nvalue = [1, 0, 0]"] ;
68 -> 69 ;
70 [label="X[1] <= 0.65\ngini = 0.18\nsamples = 10\nvalue = [1, 9, 0]"] ;
68 -> 70 ;
71 [label="gini = 0.0\nsamples = 8\nvalue = [0, 8, 0]"] ;
70 -> 71 ;
72 [label="X[3] <= 2.3\ngini = 0.5\nsamples = 2\nvalue = [1, 1, 0]"] ;
70 -> 72 ;
73 [label="gini = 0.0\nsamples = 1\nvalue = [1, 0, 0]"] ;
72 -> 73 ;
74 [label="gini = 0.0\nsamples = 1\nvalue = [0, 1, 0]"] ;
72 -> 74 ;
75 [label="gini = 0.0\nsamples = 23\nvalue = [0, 23, 0]"] ;
67 -> 75 ;
76 [label="gini = 0.0\nsamples = 83\nvalue = [0, 83, 0]"] ;
66 -> 76 ;
77 [label="X[7] <= 0.999\ngini = 0.196\nsamples = 28\nvalue = [1, 25, 2]"] ;
59 -> 77 ;
78 [label="X[9] <= 0.645\ngini = 0.46\nsamples = 10\nvalue = [1, 7, 2]"] ;
77 -> 78 ;
79 [label="X[7] <= 0.998\ngini = 0.444\nsamples = 3\nvalue = [1, 0, 2]"] ;
78 -> 79 ;
80 [label="gini = 0.0\nsamples = 1\nvalue = [1, 0, 0]"] ;
79 -> 80 ;
81 [label="gini = 0.0\nsamples = 2\nvalue = [0, 0, 2]"] ;
79 -> 81 ;
82 [label="gini = 0.0\nsamples = 7\nvalue = [0, 7, 0]"] ;
78 -> 82 ;
83 [label="gini = 0.0\nsamples = 18\nvalue = [0, 18, 0]"] ;
77 -> 83 ;
84 [label="X[1] <= 0.632\ngini = 0.375\nsamples = 4\nvalue = [1, 3, 0]"] ;
58 -> 84 ;
85 [label="gini = 0.0\nsamples = 3\nvalue = [0, 3, 0]"] ;
84 -> 85 ;
86 [label="gini = 0.0\nsamples = 1\nvalue = [1, 0, 0]"] ;
84 -> 86 ;
87 [label="X[10] <= 10.2\ngini = 0.444\nsamples = 3\nvalue = [0, 2, 1]"] ;
13 -> 87 ;
88 [label="gini = 0.0\nsamples = 2\nvalue = [0, 2, 0]"] ;
87 -> 88 ;
89 [label="gini = 0.0\nsamples = 1\nvalue = [0, 0, 1]"] ;
87 -> 89 ;
90 [label="X[1] <= 0.767\ngini = 0.268\nsamples = 44\nvalue = [7, 37, 0]"] ;
12 -> 90 ;
91 [label="gini = 0.0\nsamples = 3\nvalue = [3, 0, 0]"] ;
90 -> 91 ;
92 [label="X[9] <= 0.475\ngini = 0.176\nsamples = 41\nvalue = [4, 37, 0]"] ;
90 -> 92 ;
93 [label="X[0] <= 8.1\ngini = 0.49\nsamples = 7\nvalue = [3, 4, 0]"] ;
92 -> 93 ;
94 [label="gini = 0.0\nsamples = 4\nvalue = [0, 4, 0]"] ;
93 -> 94 ;
95 [label="gini = 0.0\nsamples = 3\nvalue = [3, 0, 0]"] ;
93 -> 95 ;
96 [label="X[7] <= 1.0\ngini = 0.057\nsamples = 34\nvalue = [1, 33, 0]"] ;
92 -> 96 ;
97 [label="gini = 0.0\nsamples = 33\nvalue = [0, 33, 0]"] ;
96 -> 97 ;
98 [label="gini = 0.0\nsamples = 1\nvalue = [1, 0, 0]"] ;
96 -> 98 ;
99 [label="X[7] <= 1.0\ngini = 0.259\nsamples = 120\nvalue = [2, 102, 16]"] ;
7 -> 99 ;
100 [label="X[8] <= 3.57\ngini = 0.229\nsamples = 116\nvalue = [2, 101, 13]"] ;
99 -> 100 ;
101 [label="X[9] <= 0.74\ngini = 0.207\nsamples = 113\nvalue = [2, 100, 11]"] ;
100 -> 101 ;
102 [label="X[6] <= 11.5\ngini = 0.129\nsamples = 88\nvalue = [2, 82, 4]"] ;
101 -> 102 ;
103 [label="gini = 0.0\nsamples = 2\nvalue = [2, 0, 0]"] ;
102 -> 103 ;
104 [label="X[3] <= 1.85\ngini = 0.089\nsamples = 86\nvalue = [0, 82, 4]"] ;
102 -> 104 ;
105 [label="X[4] <= 0.087\ngini = 0.245\nsamples = 28\nvalue = [0, 24, 4]"] ;
104 -> 105 ;
106 [label="X[1] <= 0.285\ngini = 0.147\nsamples = 25\nvalue = [0, 23, 2]"] ;
105 -> 106 ;
107 [label="gini = 0.0\nsamples = 1\nvalue = [0, 0, 1]"] ;
106 -> 107 ;
108 [label="X[4] <= 0.065\ngini = 0.08\nsamples = 24\nvalue = [0, 23, 1]"] ;
106 -> 108 ;
109 [label="X[4] <= 0.064\ngini = 0.32\nsamples = 5\nvalue = [0, 4, 1]"] ;
108 -> 109 ;
110 [label="gini = 0.0\nsamples = 4\nvalue = [0, 4, 0]"] ;
109 -> 110 ;
111 [label="gini = 0.0\nsamples = 1\nvalue = [0, 0, 1]"] ;
109 -> 111 ;
112 [label="gini = 0.0\nsamples = 19\nvalue = [0, 19, 0]"] ;
108 -> 112 ;
113 [label="X[2] <= 0.255\ngini = 0.444\nsamples = 3\nvalue = [0, 1, 2]"] ;
105 -> 113 ;
114 [label="gini = 0.0\nsamples = 2\nvalue = [0, 0, 2]"] ;
113 -> 114 ;
115 [label="gini = 0.0\nsamples = 1\nvalue = [0, 1, 0]"] ;
113 -> 115 ;
116 [label="gini = 0.0\nsamples = 58\nvalue = [0, 58, 0]"] ;
104 -> 116 ;
117 [label="X[4] <= 0.087\ngini = 0.403\nsamples = 25\nvalue = [0, 18, 7]"] ;
101 -> 117 ;
118 [label="X[4] <= 0.06\ngini = 0.298\nsamples = 22\nvalue = [0, 18, 4]"] ;
117 -> 118 ;
119 [label="X[4] <= 0.053\ngini = 0.5\nsamples = 6\nvalue = [0, 3, 3]"] ;
118 -> 119 ;
120 [label="gini = 0.0\nsamples = 3\nvalue = [0, 3, 0]"] ;
119 -> 120 ;
121 [label="gini = 0.0\nsamples = 3\nvalue = [0, 0, 3]"] ;
119 -> 121 ;
122 [label="X[10] <= 10.55\ngini = 0.117\nsamples = 16\nvalue = [0, 15, 1]"] ;
118 -> 122 ;
123 [label="X[4] <= 0.067\ngini = 0.5\nsamples = 2\nvalue = [0, 1, 1]"] ;
122 -> 123 ;
124 [label="gini = 0.0\nsamples = 1\nvalue = [0, 0, 1]"] ;
123 -> 124 ;
125 [label="gini = 0.0\nsamples = 1\nvalue = [0, 1, 0]"] ;
123 -> 125 ;
126 [label="gini = 0.0\nsamples = 14\nvalue = [0, 14, 0]"] ;
122 -> 126 ;
127 [label="gini = 0.0\nsamples = 3\nvalue = [0, 0, 3]"] ;
117 -> 127 ;
128 [label="X[5] <= 12.0\ngini = 0.444\nsamples = 3\nvalue = [0, 1, 2]"] ;
100 -> 128 ;
129 [label="gini = 0.0\nsamples = 1\nvalue = [0, 1, 0]"] ;
128 -> 129 ;
130 [label="gini = 0.0\nsamples = 2\nvalue = [0, 0, 2]"] ;
128 -> 130 ;
131 [label="X[6] <= 26.5\ngini = 0.375\nsamples = 4\nvalue = [0, 1, 3]"] ;
99 -> 131 ;
132 [label="gini = 0.0\nsamples = 1\nvalue = [0, 1, 0]"] ;
131 -> 132 ;
133 [label="gini = 0.0\nsamples = 3\nvalue = [0, 0, 3]"] ;
131 -> 133 ;
134 [label="X[2] <= 0.295\ngini = 0.476\nsamples = 274\nvalue = [4, 173, 97]"] ;
0 -> 134 [labeldistance=2.5, labelangle=-45, headlabel="False"] ;
135 [label="X[7] <= 0.992\ngini = 0.285\nsamples = 121\nvalue = [4, 101, 16]"] ;
134 -> 135 ;
136 [label="gini = 0.0\nsamples = 3\nvalue = [0, 0, 3]"] ;
135 -> 136 ;
137 [label="X[0] <= 5.35\ngini = 0.254\nsamples = 118\nvalue = [4, 101, 13]"] ;
135 -> 137 ;
138 [label="gini = 0.0\nsamples = 2\nvalue = [0, 0, 2]"] ;
137 -> 138 ;
139 [label="X[6] <= 15.5\ngini = 0.232\nsamples = 116\nvalue = [4, 101, 11]"] ;
137 -> 139 ;
140 [label="X[5] <= 8.0\ngini = 0.532\nsamples = 19\nvalue = [3, 12, 4]"] ;
139 -> 140 ;
141 [label="X[4] <= 0.092\ngini = 0.398\nsamples = 16\nvalue = [3, 12, 1]"] ;
140 -> 141 ;
142 [label="X[10] <= 11.15\ngini = 0.272\nsamples = 13\nvalue = [1, 11, 1]"] ;
141 -> 142 ;
143 [label="gini = 0.0\nsamples = 1\nvalue = [1, 0, 0]"] ;
142 -> 143 ;
144 [label="X[9] <= 0.655\ngini = 0.153\nsamples = 12\nvalue = [0, 11, 1]"] ;
142 -> 144 ;
145 [label="gini = 0.0\nsamples = 10\nvalue = [0, 10, 0]"] ;
144 -> 145 ;
146 [label="X[8] <= 3.415\ngini = 0.5\nsamples = 2\nvalue = [0, 1, 1]"] ;
144 -> 146 ;
147 [label="gini = 0.0\nsamples = 1\nvalue = [0, 0, 1]"] ;
146 -> 147 ;
148 [label="gini = 0.0\nsamples = 1\nvalue = [0, 1, 0]"] ;
146 -> 148 ;
149 [label="X[8] <= 3.4\ngini = 0.444\nsamples = 3\nvalue = [2, 1, 0]"] ;
141 -> 149 ;
150 [label="gini = 0.0\nsamples = 1\nvalue = [0, 1, 0]"] ;
149 -> 150 ;
151 [label="gini = 0.0\nsamples = 2\nvalue = [2, 0, 0]"] ;
149 -> 151 ;
152 [label="gini = 0.0\nsamples = 3\nvalue = [0, 0, 3]"] ;
140 -> 152 ;
153 [label="X[3] <= 3.3\ngini = 0.153\nsamples = 97\nvalue = [1, 89, 7]"] ;
139 -> 153 ;
154 [label="X[5] <= 31.5\ngini = 0.135\nsamples = 96\nvalue = [0, 89, 7]"] ;
153 -> 154 ;
155 [label="X[9] <= 0.87\ngini = 0.087\nsamples = 88\nvalue = [0, 84, 4]"] ;
154 -> 155 ;
156 [label="X[3] <= 2.35\ngini = 0.067\nsamples = 86\nvalue = [0, 83, 3]"] ;
155 -> 156 ;
157 [label="gini = 0.0\nsamples = 57\nvalue = [0, 57, 0]"] ;
156 -> 157 ;
158 [label="X[9] <= 0.73\ngini = 0.185\nsamples = 29\nvalue = [0, 26, 3]"] ;
156 -> 158 ;
159 [label="X[5] <= 13.5\ngini = 0.133\nsamples = 28\nvalue = [0, 26, 2]"] ;
158 -> 159 ;
160 [label="X[3] <= 2.45\ngini = 0.346\nsamples = 9\nvalue = [0, 7, 2]"] ;
159 -> 160 ;
161 [label="X[2] <= 0.18\ngini = 0.444\nsamples = 3\nvalue = [0, 1, 2]"] ;
160 -> 161 ;
162 [label="gini = 0.0\nsamples = 2\nvalue = [0, 0, 2]"] ;
161 -> 162 ;
163 [label="gini = 0.0\nsamples = 1\nvalue = [0, 1, 0]"] ;
161 -> 163 ;
164 [label="gini = 0.0\nsamples = 6\nvalue = [0, 6, 0]"] ;
160 -> 164 ;
165 [label="gini = 0.0\nsamples = 19\nvalue = [0, 19, 0]"] ;
159 -> 165 ;
166 [label="gini = 0.0\nsamples = 1\nvalue = [0, 0, 1]"] ;
158 -> 166 ;
167 [label="X[9] <= 0.925\ngini = 0.5\nsamples = 2\nvalue = [0, 1, 1]"] ;
155 -> 167 ;
168 [label="gini = 0.0\nsamples = 1\nvalue = [0, 0, 1]"] ;
167 -> 168 ;
169 [label="gini = 0.0\nsamples = 1\nvalue = [0, 1, 0]"] ;
167 -> 169 ;
170 [label="X[10] <= 12.05\ngini = 0.469\nsamples = 8\nvalue = [0, 5, 3]"] ;
154 -> 170 ;
171 [label="gini = 0.0\nsamples = 5\nvalue = [0, 5, 0]"] ;
170 -> 171 ;
172 [label="gini = 0.0\nsamples = 3\nvalue = [0, 0, 3]"] ;
170 -> 172 ;
173 [label="gini = 0.0\nsamples = 1\nvalue = [1, 0, 0]"] ;
153 -> 173 ;
174 [label="X[6] <= 45.0\ngini = 0.498\nsamples = 153\nvalue = [0, 72, 81]"] ;
134 -> 174 ;
175 [label="X[9] <= 0.695\ngini = 0.481\nsamples = 122\nvalue = [0, 49, 73]"] ;
174 -> 175 ;
176 [label="X[6] <= 16.5\ngini = 0.485\nsamples = 58\nvalue = [0, 34, 24]"] ;
175 -> 176 ;
177 [label="X[9] <= 0.53\ngini = 0.428\nsamples = 29\nvalue = [0, 9, 20]"] ;
176 -> 177 ;
178 [label="gini = 0.0\nsamples = 4\nvalue = [0, 4, 0]"] ;
177 -> 178 ;
179 [label="X[8] <= 3.265\ngini = 0.32\nsamples = 25\nvalue = [0, 5, 20]"] ;
177 -> 179 ;
180 [label="gini = 0.0\nsamples = 14\nvalue = [0, 0, 14]"] ;
179 -> 180 ;
181 [label="X[4] <= 0.073\ngini = 0.496\nsamples = 11\nvalue = [0, 5, 6]"] ;
179 -> 181 ;
182 [label="X[3] <= 2.6\ngini = 0.245\nsamples = 7\nvalue = [0, 1, 6]"] ;
181 -> 182 ;
183 [label="gini = 0.0\nsamples = 6\nvalue = [0, 0, 6]"] ;
182 -> 183 ;
184 [label="gini = 0.0\nsamples = 1\nvalue = [0, 1, 0]"] ;
182 -> 184 ;
185 [label="gini = 0.0\nsamples = 4\nvalue = [0, 4, 0]"] ;
181 -> 185 ;
186 [label="X[2] <= 0.355\ngini = 0.238\nsamples = 29\nvalue = [0, 25, 4]"] ;
176 -> 186 ;
187 [label="X[5] <= 9.5\ngini = 0.49\nsamples = 7\nvalue = [0, 4, 3]"] ;
186 -> 187 ;
188 [label="gini = 0.0\nsamples = 3\nvalue = [0, 3, 0]"] ;
187 -> 188 ;
189 [label="X[6] <= 26.0\ngini = 0.375\nsamples = 4\nvalue = [0, 1, 3]"] ;
187 -> 189 ;
190 [label="gini = 0.0\nsamples = 1\nvalue = [0, 1, 0]"] ;
189 -> 190 ;
191 [label="gini = 0.0\nsamples = 3\nvalue = [0, 0, 3]"] ;
189 -> 191 ;
192 [label="X[3] <= 2.65\ngini = 0.087\nsamples = 22\nvalue = [0, 21, 1]"] ;
186 -> 192 ;
193 [label="gini = 0.0\nsamples = 18\nvalue = [0, 18, 0]"] ;
192 -> 193 ;
194 [label="X[3] <= 2.75\ngini = 0.375\nsamples = 4\nvalue = [0, 3, 1]"] ;
192 -> 194 ;
195 [label="gini = 0.0\nsamples = 1\nvalue = [0, 0, 1]"] ;
194 -> 195 ;
196 [label="gini = 0.0\nsamples = 3\nvalue = [0, 3, 0]"] ;
194 -> 196 ;
197 [label="X[0] <= 9.65\ngini = 0.359\nsamples = 64\nvalue = [0, 15, 49]"] ;
175 -> 197 ;
198 [label="X[10] <= 11.25\ngini = 0.254\nsamples = 47\nvalue = [0, 7, 40]"] ;
197 -> 198 ;
199 [label="X[9] <= 0.805\ngini = 0.486\nsamples = 12\nvalue = [0, 5, 7]"] ;
198 -> 199 ;
200 [label="X[4] <= 0.093\ngini = 0.278\nsamples = 6\nvalue = [0, 5, 1]"] ;
199 -> 200 ;
201 [label="gini = 0.0\nsamples = 5\nvalue = [0, 5, 0]"] ;
200 -> 201 ;
202 [label="gini = 0.0\nsamples = 1\nvalue = [0, 0, 1]"] ;
200 -> 202 ;
203 [label="gini = 0.0\nsamples = 6\nvalue = [0, 0, 6]"] ;
199 -> 203 ;
204 [label="X[8] <= 3.155\ngini = 0.108\nsamples = 35\nvalue = [0, 2, 33]"] ;
198 -> 204 ;
205 [label="gini = 0.0\nsamples = 1\nvalue = [0, 1, 0]"] ;
204 -> 205 ;
206 [label="X[1] <= 0.42\ngini = 0.057\nsamples = 34\nvalue = [0, 1, 33]"] ;
204 -> 206 ;
207 [label="gini = 0.0\nsamples = 32\nvalue = [0, 0, 32]"] ;
206 -> 207 ;
208 [label="X[3] <= 2.2\ngini = 0.5\nsamples = 2\nvalue = [0, 1, 1]"] ;
206 -> 208 ;
209 [label="gini = 0.0\nsamples = 1\nvalue = [0, 1, 0]"] ;
208 -> 209 ;
210 [label="gini = 0.0\nsamples = 1\nvalue = [0, 0, 1]"] ;
208 -> 210 ;
211 [label="X[2] <= 0.565\ngini = 0.498\nsamples = 17\nvalue = [0, 8, 9]"] ;
197 -> 211 ;
212 [label="X[4] <= 0.068\ngini = 0.444\nsamples = 12\nvalue = [0, 8, 4]"] ;
211 -> 212 ;
213 [label="gini = 0.0\nsamples = 2\nvalue = [0, 0, 2]"] ;
212 -> 213 ;
214 [label="X[9] <= 0.765\ngini = 0.32\nsamples = 10\nvalue = [0, 8, 2]"] ;
212 -> 214 ;
215 [label="gini = 0.0\nsamples = 5\nvalue = [0, 5, 0]"] ;
214 -> 215 ;
216 [label="X[9] <= 0.815\ngini = 0.48\nsamples = 5\nvalue = [0, 3, 2]"] ;
214 -> 216 ;
217 [label="gini = 0.0\nsamples = 2\nvalue = [0, 0, 2]"] ;
216 -> 217 ;
218 [label="gini = 0.0\nsamples = 3\nvalue = [0, 3, 0]"] ;
216 -> 218 ;
219 [label="gini = 0.0\nsamples = 5\nvalue = [0, 0, 5]"] ;
211 -> 219 ;
220 [label="X[0] <= 9.05\ngini = 0.383\nsamples = 31\nvalue = [0, 23, 8]"] ;
174 -> 220 ;
221 [label="X[9] <= 0.87\ngini = 0.18\nsamples = 20\nvalue = [0, 18, 2]"] ;
220 -> 221 ;
222 [label="X[8] <= 3.395\ngini = 0.1\nsamples = 19\nvalue = [0, 18, 1]"] ;
221 -> 222 ;
223 [label="gini = 0.0\nsamples = 17\nvalue = [0, 17, 0]"] ;
222 -> 223 ;
224 [label="X[0] <= 8.45\ngini = 0.5\nsamples = 2\nvalue = [0, 1, 1]"] ;
222 -> 224 ;
225 [label="gini = 0.0\nsamples = 1\nvalue = [0, 0, 1]"] ;
224 -> 225 ;
226 [label="gini = 0.0\nsamples = 1\nvalue = [0, 1, 0]"] ;
224 -> 226 ;
227 [label="gini = 0.0\nsamples = 1\nvalue = [0, 0, 1]"] ;
221 -> 227 ;
228 [label="X[6] <= 57.0\ngini = 0.496\nsamples = 11\nvalue = [0, 5, 6]"] ;
220 -> 228 ;
229 [label="X[9] <= 0.74\ngini = 0.408\nsamples = 7\nvalue = [0, 5, 2]"] ;
228 -> 229 ;
230 [label="gini = 0.0\nsamples = 4\nvalue = [0, 4, 0]"] ;
229 -> 230 ;
231 [label="X[3] <= 2.7\ngini = 0.444\nsamples = 3\nvalue = [0, 1, 2]"] ;
229 -> 231 ;
232 [label="gini = 0.0\nsamples = 2\nvalue = [0, 0, 2]"] ;
231 -> 232 ;
233 [label="gini = 0.0\nsamples = 1\nvalue = [0, 1, 0]"] ;
231 -> 233 ;
234 [label="gini = 0.0\nsamples = 4\nvalue = [0, 0, 4]"] ;
228 -> 234 ;
}
